[[[ 8.28695841e-01  7.02845011e-02 -1.65474978e-01]
  [ 8.72831437e-01 -1.20354551e-01 -1.66551099e-01]
  [ 1.24335241e+00  3.49219541e-01  1.94780850e-01]]

 [[ 1.31353426e+00  7.99267205e-01  7.16975749e-01]
  [ 1.03230419e+00  4.84297487e-01  3.52330754e-01]
  [-3.19916374e-01 -8.10613432e-01 -1.19484532e+00]]

 [[ 6.11655317e-04 -2.23829971e-01 -1.17068402e+00]
  [ 3.20041639e-01  1.67869527e-01 -8.71652755e-01]
  [ 9.94410425e-01  8.27092300e-01 -3.07531110e-01]]

 [[-2.95748236e-01 -1.43552282e-01 -3.76112737e-01]
  [-1.65396936e-01  5.67583913e-02 -2.81863768e-01]
  [ 3.84226884e-01  6.11942607e-01  3.21865885e-01]]

 [[-7.51884186e-01 -7.42270891e-01 -2.09318694e+00]
  [ 9.33541557e-01  9.54379248e-01 -4.14112052e-01]
  [ 1.09919228e+00  1.07768109e+00 -3.49920097e-01]]

 [[-1.52124514e+00 -1.51454690e+00 -1.38218718e+00]
  [ 8.66645902e-01  9.70813191e-01  1.17978653e+00]
  [ 1.14774333e+00  1.24854838e+00  1.41052727e+00]]

 [[-2.00821300e-02  9.30257062e-01  1.17464376e+00]
  [-1.21819289e+00 -4.12538804e-01 -6.59352676e-02]
  [-7.42146107e-01  2.58854495e-01  4.95877288e-01]]

 [[ 4.97831185e-01  1.53895099e-02  6.14560359e-01]
  [ 4.69423621e-01  1.03895296e-01  7.55915069e-01]
  [-7.11246285e-01 -1.11154517e+00 -5.25345805e-01]]]
[[-0.53781407 -2.57576779 -3.07234185 ... -0.52311053 -2.3398418
  -1.35326269]
 [ 0.29606974  1.11019537  0.01692291 ...  0.40678397 -1.39831701
  -1.36800182]
 [ 0.33618829 -0.60390026 -1.26047303 ...  1.85346214 -0.79365541
   0.72055482]
 ...
 [ 0.05967273  0.36288909  0.17850232 ... -1.18629617 -0.76153442
   1.66310844]
 [-0.86247759 -0.09660091  0.49430026 ... -1.65306475 -1.31445429
  -0.89912471]
 [-0.97369117  1.27189489 -0.79946784 ... -0.29636036  0.52309343
   1.15406019]]
[ 0.13335005  0.06997922  0.05156155  0.06966279  0.01970416 -0.03514031
 -0.07794941 -0.07852417 -0.03702576 -0.11561812]